1.418077852576971054e-02,-3.859636140987277031e-03,-2.765188924968242645e-02,2.032287791371345520e-02,-2.531973272562026978e-02,-3.128702193498611450e-02,2.028791606426239014e-02,2.814803831279277802e-02,-7.317076437175273895e-03,-4.491622373461723328e-02,-5.474050994962453842e-03,-8.387152850627899170e-02,-7.401102036237716675e-02,1.023192889988422394e-02,6.970226764678955078e-02,-4.636789113283157349e-02,-1.802478916943073273e-02,-5.510205402970314026e-03,-1.921551302075386047e-02,-1.563470065593719482e-02,3.497698344290256500e-03,6.455221027135848999e-02,1.187601941637694836e-03,5.654694885015487671e-02,-9.028931148350238800e-03,8.910652995109558105e-02,-2.341229841113090515e-02,-5.837694182991981506e-02,5.011777579784393311e-02,-4.792189970612525940e-02,-6.290556490421295166e-02,8.034750819206237793e-02,-3.919116035103797913e-02,4.159662406891584396e-03,1.590018719434738159e-02,4.337617009878158569e-02,-3.987445309758186340e-02,-3.154989331960678101e-02,3.249171748757362366e-02,2.029181830585002899e-02,1.085836905986070633e-02,-3.738093003630638123e-02,-5.237349122762680054e-02,-3.706923872232437134e-02,4.606884717941284180e-02,-6.030711904168128967e-02,-4.131405800580978394e-02,3.834109380841255188e-02,-1.624364964663982391e-02,5.925576761364936829e-02,5.050893500447273254e-02,2.155458182096481323e-02,1.868112129159271717e-03,4.281725361943244934e-02,1.371452026069164276e-02,1.089986134320497513e-02,-5.103142559528350830e-02,-1.378236524760723114e-02,5.177061259746551514e-02,-6.658304017037153244e-03,4.509440064430236816e-02,-1.822739280760288239e-02,3.464808687567710876e-02,-2.785080112516880035e-02,2.251929976046085358e-02,-7.149250712245702744e-03,-4.359383508563041687e-02,3.774924203753471375e-02,-9.965239769371692091e-06,-1.034480519592761993e-03,-3.659177199006080627e-02,2.295880205929279327e-02,-3.301942721009254456e-02,7.793182041496038437e-03,7.058405131101608276e-02,1.238911133259534836e-02,4.162687435746192932e-02,-3.442566841840744019e-02,-4.060617834329605103e-02,-9.028188884258270264e-03,5.171143636107444763e-02,7.162560522556304932e-02,-6.033202633261680603e-02,-1.246044132858514786e-02,-4.572548437863588333e-03,-1.484453957527875900e-02,7.110489159822463989e-02,-3.690402209758758545e-02,5.508321523666381836e-02,-1.691063493490219116e-02,4.514168947935104370e-02,9.094670414924621582e-03,5.232741683721542358e-02,2.146936021745204926e-02,-2.312680333852767944e-02,4.364169389009475708e-02,-5.206287652254104614e-02,-4.095565155148506165e-02,-6.944635510444641113e-02,-3.612469509243965149e-02,2.971173264086246490e-02,-7.666350901126861572e-02,2.989208512008190155e-02,-7.706961035728454590e-02,-2.951725013554096222e-02,-1.609100261703133583e-03,2.343203872442245483e-02,6.776438094675540924e-03,-6.588655710220336914e-02,-7.212527841329574585e-02,5.062570050358772278e-02,-1.358421426266431808e-02,2.716673538088798523e-02,2.287785522639751434e-02,1.347811333835124969e-02,-5.329575389623641968e-02,-3.522262349724769592e-02,-4.653790593147277832e-02,-1.349185109138488770e-01,7.747191935777664185e-03,-4.310221225023269653e-02,5.962901189923286438e-02,7.947330363094806671e-03,5.041563883423805237e-02,-4.591975361108779907e-02,-5.951700359582901001e-02,-4.880731925368309021e-02,-1.348857767879962921e-02,6.697067618370056152e-02,4.595385864377021790e-02,-7.016418501734733582e-03,-9.285281598567962646e-02,3.318456467241048813e-03,-3.374987095594406128e-02,-2.740915119647979736e-02,1.333255693316459656e-02,6.303877383470535278e-02,-5.190887954086065292e-03,9.531768970191478729e-03,4.460400715470314026e-02,4.009390994906425476e-02,5.224293470382690430e-02,2.518204972147941589e-02,6.714113522320985794e-03,1.584393717348575592e-02,4.333531111478805542e-02,1.569675840437412262e-02,3.364203125238418579e-02,-4.844683408737182617e-02,-1.187140867114067078e-02,-3.251029178500175476e-02,1.550273969769477844e-02,-6.961215287446975708e-02,-8.198864758014678955e-02,2.905714325606822968e-02,-3.692127391695976257e-02,-6.576384417712688446e-03,3.893066942691802979e-02,4.000655189156532288e-02,-3.141250088810920715e-02,7.080294657498598099e-03,-6.585904955863952637e-02,-1.276256423443555832e-02,5.275845061987638474e-03,3.494654968380928040e-02,-2.300373464822769165e-02,-2.759786881506443024e-02,5.436921119689941406e-02,-8.784453384578227997e-03,-1.054071355611085892e-02,3.357160836458206177e-02,-3.044630773365497589e-02,3.327826270833611488e-03,-2.613035961985588074e-02,-4.305022768676280975e-03,2.120869234204292297e-02,-8.452829718589782715e-02,1.051456294953823090e-02,-5.791991949081420898e-02,8.981396257877349854e-02,-1.180851645767688751e-02,-3.322245925664901733e-02,-9.242512285709381104e-03,-6.730431318283081055e-02,-3.469637408852577209e-02,-4.427286237478256226e-02,-3.048734925687313080e-02,-7.847455143928527832e-02,-4.451939091086387634e-02,1.768464036285877228e-02,3.524870052933692932e-02,-2.808404713869094849e-02,7.672686874866485596e-02,1.219231728464365005e-02,-3.123687580227851868e-02,-3.690183535218238831e-02,-3.265265002846717834e-02,-3.888960927724838257e-02,-4.210593178868293762e-02,-4.485322535037994385e-02,2.079417370259761810e-02,3.303753584623336792e-02,2.410423010587692261e-02,4.639583826065063477e-02,1.704962737858295441e-02,-9.755523502826690674e-02,7.504575699567794800e-02,-6.476332992315292358e-02,-2.394565567374229431e-02,6.342083960771560669e-02,7.921910285949707031e-02,-4.550551623106002808e-02,-2.532519400119781494e-02,2.709366567432880402e-02,-4.856299981474876404e-02,2.413919195532798767e-02,2.084360830485820770e-02,-2.734901756048202515e-02,-2.706121839582920074e-02,-5.217675119638442993e-02,4.231444373726844788e-02,-7.683713920414447784e-03,8.237958536483347416e-04,3.441952168941497803e-02,3.624729439616203308e-02,-1.034083659760653973e-03,2.489263657480478287e-03,3.583341464400291443e-02,1.311107422225177288e-03,-1.771914213895797729e-02,1.044188160449266434e-02,4.538087639957666397e-03,-5.083934962749481201e-02,-1.143170427531003952e-02,-8.861853741109371185e-03,6.783384829759597778e-02,-7.776551693677902222e-02,2.594181522727012634e-02,2.629117574542760849e-03,-1.428716629743576050e-02,-7.239598035812377930e-02,-6.277855485677719116e-02,-2.030100859701633453e-02,4.313556849956512451e-02,8.758921176195144653e-02,5.268604680895805359e-02,2.541120164096355438e-02,-5.777403339743614197e-02,7.391748577356338501e-02,-1.092736236751079559e-02,-2.607077360153198242e-02,6.371279805898666382e-02,-8.215124905109405518e-02,-2.454724721610546112e-02,2.653235569596290588e-02,-9.527190029621124268e-02,-5.259846523404121399e-02,-2.007310464978218079e-02,-5.105932429432868958e-02,-1.857650466263294220e-02,4.234110191464424133e-02,-1.724316738545894623e-02,4.615079611539840698e-02,-5.881059914827346802e-02,-2.617548219859600067e-02,-2.268706681206822395e-03,8.169236592948436737e-03,-4.072192683815956116e-02,-1.006800383329391479e-01,-2.383888326585292816e-02,-5.590997636318206787e-03,3.908864222466945648e-03,-3.778002783656120300e-02,3.767492249608039856e-02,7.721152156591415405e-02,-1.640634238719940186e-02,-4.617168754339218140e-02,-3.025338612496852875e-02,-1.499366667121648788e-02,5.618174001574516296e-02,-4.648862872272729874e-03,-3.711077943444252014e-02,-4.348406940698623657e-02,-7.030329108238220215e-02,-2.451018244028091431e-02,6.229359284043312073e-02,-8.320782333612442017e-03,3.623683378100395203e-02,-3.821034729480743408e-02,2.298639714717864990e-02,-7.338011171668767929e-03,4.433013126254081726e-02,8.170400559902191162e-02,-4.390656203031539917e-02,-3.962623700499534607e-02,2.661408856511116028e-02,-4.168717935681343079e-02,-7.587958127260208130e-02,-4.865606501698493958e-02,2.450449578464031219e-02,-1.064405776560306549e-02,-2.149297652067616582e-04,4.095156863331794739e-02,3.596152365207672119e-02,1.562048099003732204e-03,-5.449377745389938354e-02,-7.386346813291311264e-03,3.578378260135650635e-02,3.204169496893882751e-02,2.729927562177181244e-02,-4.812156781554222107e-02,6.203336175531148911e-03,8.549366891384124756e-02,2.094921655952930450e-02,2.805966138839721680e-02,3.002617508172988892e-02,4.710758477449417114e-02,-3.803816810250282288e-02,-2.309420146048069000e-03,-1.383980736136436462e-02,-6.953177507966756821e-03,5.578970164060592651e-02,-5.314103793352842331e-03,-2.877291478216648102e-02,3.261011093854904175e-02,-4.875691980123519897e-02,-1.056907605379819870e-02,3.484428673982620239e-02,-7.882217317819595337e-02,6.343032419681549072e-02,-1.368280220776796341e-02,2.904805913567543030e-02,-1.417782157659530640e-02,1.173788234591484070e-01,-2.281635534018278122e-03,-5.102013424038887024e-02,-7.142940908670425415e-02,2.836511470377445221e-02,4.964561387896537781e-02,-8.445044606924057007e-02,4.187452420592308044e-02,9.725850075483322144e-03,3.836691379547119141e-02,-2.508940361440181732e-02,7.598205655813217163e-02,-2.064616791903972626e-02,3.224092349410057068e-02,2.701562643051147461e-02,-3.625651821494102478e-02,-3.368749842047691345e-02,-5.086576193571090698e-02,-8.086827397346496582e-02,-6.281302869319915771e-02,-1.509966794401407242e-02,-1.695451512932777405e-02,1.346797496080398560e-01,2.388555370271205902e-02,-1.194834560155868530e-01,2.664053626358509064e-02,1.929967105388641357e-02,1.016375795006752014e-02,4.143917560577392578e-02,3.404239937663078308e-02,9.970736503601074219e-02,-2.840309031307697296e-02,4.758259747177362442e-03,5.738171562552452087e-02,3.024180233478546143e-02,6.721049547195434570e-03,-8.570073544979095459e-02,4.511675983667373657e-02,6.021448224782943726e-02,5.341675132513046265e-02,-2.057547681033611298e-02,-1.057853624224662781e-01,8.456763625144958496e-02,-5.361412093043327332e-02,2.550971880555152893e-02,2.655953401699662209e-03,-8.657822012901306152e-02,-1.071811839938163757e-02,3.367019444704055786e-02,4.105405509471893311e-02,5.617892369627952576e-02,8.879499882459640503e-02,-1.705743558704853058e-02,-5.525809153914451599e-02,1.210912410169839859e-02,-6.972765177488327026e-02,6.918571889400482178e-03,5.600392818450927734e-02,-3.930291533470153809e-02,2.324902452528476715e-02,-7.363168150186538696e-02,-8.688867092132568359e-02,-6.594647467136383057e-02,-3.832531720399856567e-02,-1.084122806787490845e-03,-7.132183015346527100e-02,3.036404214799404144e-02,-4.419698566198348999e-02,-2.733186073601245880e-02,-5.059771239757537842e-02,4.550024867057800293e-02,-7.825872302055358887e-02,1.637395843863487244e-02,1.215928792953491211e-02,-5.215501785278320312e-02,5.572652444243431091e-02,2.646777965128421783e-02,2.484656125307083130e-02,3.184864297509193420e-02,-2.611490152776241302e-02,-8.140223473310470581e-02,-7.043657358735799789e-03,-7.099967449903488159e-03,-3.945812210440635681e-02,-3.964557126164436340e-02,6.005655508488416672e-03,-3.126855567097663879e-02,-1.514759659767150879e-02,-5.102087929844856262e-02,4.054489079862833023e-03,-7.037938386201858521e-02,-7.448065443895757198e-04,-4.917263984680175781e-02,5.817028135061264038e-02,1.746013388037681580e-02,1.216933038085699081e-02,-7.685729116201400757e-02,3.067717887461185455e-02,-2.720553055405616760e-02,3.668196965008974075e-03,-9.994578361511230469e-02,-2.704445086419582367e-02,-6.224973127245903015e-02,3.914296254515647888e-02,-5.968705564737319946e-02,2.132990024983882904e-02,6.284984946250915527e-02,-1.111171301454305649e-02,2.392697706818580627e-02,-8.184727281332015991e-02,5.092194303870201111e-02,-2.471422590315341949e-02,-2.067262120544910431e-02,-3.638618811964988708e-02,7.775952666997909546e-02,3.397091850638389587e-02,-1.123441010713577271e-02,1.159711275249719620e-02,-2.970350906252861023e-02,-6.932672858238220215e-02,-2.506572008132934570e-02,-7.786798290908336639e-03,-8.135757409036159515e-03,-4.824751615524291992e-02,-4.897705279290676117e-03,3.421948477625846863e-02,7.414381206035614014e-02,-3.456751257181167603e-02,1.323767192661762238e-02,8.758705109357833862e-03,4.217656329274177551e-02,-2.589351125061511993e-02,-1.829095929861068726e-02,6.045415997505187988e-02,2.199263311922550201e-02,4.303469322621822357e-03,-5.849256645888090134e-03,-6.466970592737197876e-02,5.015570297837257385e-02,1.451412308961153030e-02,-1.745257340371608734e-02,2.266498096287250519e-02,1.825146190822124481e-02,-8.816085010766983032e-02,1.650166325271129608e-02,5.864986451342701912e-04,-8.443822711706161499e-02,-1.927884481847286224e-02,2.803660184144973755e-02,4.232334718108177185e-02,7.383165508508682251e-02,-1.556256227195262909e-02,-6.645233184099197388e-02,-2.347185835242271423e-02,2.359673194587230682e-02,-2.302674204111099243e-02,-3.036990016698837280e-02,3.477670252323150635e-02,-1.044479478150606155e-02,7.857372611761093140e-02,-6.014709547162055969e-02,-1.461185142397880554e-02,7.677137851715087891e-03,2.259817160665988922e-02,-2.179964678362011909e-03,4.592578113079071045e-02,-4.914063215255737305e-02,3.096892498433589935e-02,6.006753072142601013e-02,-1.864943280816078186e-02,-2.055204845964908600e-02,6.713384389877319336e-02,-2.021368592977523804e-03,-2.225958928465843201e-02,-2.066122926771640778e-02,-4.963133111596107483e-02,-3.305685147643089294e-02,1.024232804775238037e-02,-3.373290970921516418e-02
